{"learner":{"attributes":{"scikit_learn":"{\"_estimator_type\": \"regressor\"}"},"feature_names":["LogP","MW","RB","APRatio"],"feature_types":["float","float","int","float"],"gradient_booster":{"model":{"gbtree_model_param":{"num_parallel_tree":"1","num_trees":"10"},"iteration_indptr":[0,1,2,3,4,5,6,7,8,9,10],"tree_info":[0,0,0,0,0,0,0,0,0,0],"trees":[{"base_weights":[-2.5566083E-8,1.1796427E0,-2.1135266E0,2.2602158E0,7.492046E-1,-1.5139118E0,-1.2494605E0,2.7441518E0,3.6468437E-1,1.1522167E0,2.7736068E-1,-1.1203719E0,-2.0234895E0,9.227762E-1,2.145983E0,9.0203875E-1,-1.5348448E-1,1.7749393E0,8.853949E-1,1.1239809E0,7.862392E-3,-9.2322826E-1,-1.3709415E0,-1.8274533E0,-8.0097866E-1,1.5846601E-1,6.807127E-1,1.2955922E-1,3.7927428E-1,1.4694166E-1,-1.6972578E-1,8.090243E-1,4.6945676E-1,1.0994889E0,5.66771E-1,6.7630243E-1,1.5487969E0,1.27833E-1,-6.145182E-1,-1.0327386E0,-2.5943145E-1,-1.4982865E0,-8.812113E-1,-1.5425516E0,-2.527903E0,-4.534006E-3,6.952426E-2,4.0447107E-1,2.0787685E-1,-1.4670904E-2,2.4625814E-1,2.3763545E-1,-8.965051E-2,5.9947425E-1,3.2121342E-1,2.472891E-1,-5.978059E-3,-8.821749E-2,-2.4976754E-1,-3.3213E-1,-5.9475753E-2,-2.2725768E-2,-1.13475755E-1,-4.6165362E-1,-1.091505E-1,-4.923401E-2,-3.278675E-1,-4.8676306E-1,-7.653401E-2,-3.2553405E-1,-8.2588845E-1],"categories":[],"categories_nodes":[],"categories_segments":[],"categories_sizes":[],"default_left":[0,0,0,0,0,0,0,0,0,0,0,0,0,0,0,0,0,0,0,0,0,0,0,0,0,0,0,0,0,0,0,0,0,0,0,0,0,0,0,0,0,0,0,0,0,0,0,0,0,0,0,0,0,0,0,0,0,0,0,0,0,0,0,0,0,0,0,0,0,0,0],"id":0,"left_children":[1,3,5,7,9,11,-1,13,15,17,19,21,23,-1,25,27,29,31,33,35,37,39,41,43,-1,-1,-1,-1,-1,45,-1,-1,-1,47,49,51,53,55,57,59,61,63,65,67,69,-1,-1,-1,-1,-1,-1,-1,-1,-1,-1,-1,-1,-1,-1,-1,-1,-1,-1,-1,-1,-1,-1,-1,-1,-1,-1],"loss_changes":[1.0022688E3,1.1830759E2,1.7081677E2,6.596332E1,3.5049965E1,2.039386E1,0E0,4.9094543E0,4.593494E0,1.5044083E1,1.9841316E1,1.9945908E0,1.2036743E0,0E0,3.5793915E0,8.1642866E-1,1.1978376E0,1.3960266E0,4.288349E0,2.9463463E0,5.0812697E0,2.639782E0,3.6354065E-1,4.082947E0,0E0,0E0,0E0,0E0,0E0,8.596176E-2,0E0,0E0,0E0,3.3133392E0,4.8896675E0,1.5919471E0,9.212494E-3,5.8822627E0,5.2378416E-1,1.8903313E0,1.2412086E-1,3.6035156E-1,1.0350065E0,2.778595E0,2.5984573E-1,0E0,0E0,0E0,0E0,0E0,0E0,0E0,0E0,0E0,0E0,0E0,0E0,0E0,0E0,0E0,0E0,0E0,0E0,0E0,0E0,0E0,0E0,0E0,0E0,0E0,0E0],"parents":[2147483647,0,0,1,1,2,2,3,3,4,4,5,5,7,7,8,8,9,9,10,10,11,11,12,12,14,14,15,15,16,16,17,17,18,18,19,19,20,20,21,21,22,22,23,23,29,29,33,33,34,34,35,35,36,36,37,37,38,38,39,39,40,40,41,41,42,42,43,43,44,44],"right_children":[2,4,6,8,10,12,-1,14,16,18,20,22,24,-1,26,28,30,32,34,36,38,40,42,44,-1,-1,-1,-1,-1,46,-1,-1,-1,48,50,52,54,56,58,60,62,64,66,68,70,-1,-1,-1,-1,-1,-1,-1,-1,-1,-1,-1,-1,-1,-1,-1,-1,-1,-1,-1,-1,-1,-1,-1,-1,-1,-1],"split_conditions":[2.8699E0,1.102E2,4.9536E0,1.7696E0,1.82266E2,3.8094E0,-1.2494605E0,1.4048E0,2.1183E0,1.3499E0,1.0816E0,2.42344E2,3.72808E2,9.227762E-1,7.0135E1,8.4143E1,2.422E0,-2.1798E0,2.34E0,3E0,3.02458E2,2.08261E2,6E0,7.5E-1,-8.0097866E-1,1.5846601E-1,6.807127E-1,1.2955922E-1,3.7927428E-1,8.4933E1,-1.6972578E-1,8.090243E-1,4.6945676E-1,1.44214E2,1.28215E2,2.6832E2,1.254E-1,3.1578946E-1,4E0,7E0,2.18253E2,3.7878E0,2.84098E2,6.923077E-1,4.04356E0,-4.534006E-3,6.952426E-2,4.0447107E-1,2.0787685E-1,-1.4670904E-2,2.4625814E-1,2.3763545E-1,-8.965051E-2,5.9947425E-1,3.2121342E-1,2.472891E-1,-5.978059E-3,-8.821749E-2,-2.4976754E-1,-3.3213E-1,-5.9475753E-2,-2.2725768E-2,-1.13475755E-1,-4.6165362E-1,-1.091505E-1,-4.923401E-2,-3.278675E-1,-4.8676306E-1,-7.653401E-2,-3.2553405E-1,-8.2588845E-1],"split_indices":[0,1,0,0,1,0,0,0,0,0,0,1,1,0,1,1,0,0,0,2,1,1,2,3,0,0,0,0,0,1,0,0,0,1,1,1,0,3,2,2,1,0,1,3,0,0,0,0,0,0,0,0,0,0,0,0,0,0,0,0,0,0,0,0,0,0,0,0,0,0,0],"split_type":[0,0,0,0,0,0,0,0,0,0,0,0,0,0,0,0,0,0,0,0,0,0,0,0,0,0,0,0,0,0,0,0,0,0,0,0,0,0,0,0,0,0,0,0,0,0,0,0,0,0,0,0,0,0,0,0,0,0,0,0,0,0,0,0,0,0,0,0,0,0,0],"sum_hessian":[4E2,2.57E2,1.43E2,7.2E1,1.85E2,1.12E2,3.1E1,5.7E1,1.5E1,9.9E1,8.6E1,6.5E1,4.7E1,3.4E1,2.3E1,7E0,8E0,2.8E1,7.1E1,2E1,6.6E1,3.9E1,2.6E1,3.9E1,8E0,2E0,2.1E1,4E0,3E0,5E0,3E0,3E0,2.5E1,4.1E1,3E1,1.1E1,9E0,5.6E1,1E1,3.3E1,6E0,1.9E1,7E0,3E1,9E0,2E0,3E0,2.4E1,1.7E1,9E0,2.1E1,1E1,1E0,3E0,6E0,9E0,4.7E1,5E0,5E0,3E1,3E0,3E0,3E0,1.8E1,1E0,2E0,5E0,2.8E1,2E0,2E0,7E0],"tree_param":{"num_deleted":"0","num_feature":"4","num_nodes":"71","size_leaf_vector":"1"}},{"base_weights":[4.885589E-5,8.2532984E-1,-1.5614544E0,1.3326495E0,3.4901652E-1,-1.1763338E0,-9.346273E-1,1.9822378E0,7.3988557E-1,5.367474E-1,-1.0363991E-1,-8.5237247E-1,-1.5269998E0,2.4475808E0,1.7874035E0,5.7371986E-1,5.7398397E-1,8.5235E-1,3.2791996E-1,-1.9408654E-1,1.1067128E0,-6.889169E-1,-9.9831265E-1,-1.3571869E0,-2.0519958E0,7.8625304E-1,2.6427466E-1,7.0780593E-1,5.461169E-1,8.023282E-1,1.3272242E-1,9.199796E-1,3.383293E-1,-8.564301E-2,5.368425E-1,-4.0647365E-2,-4.6518165E-1,-5.6853537E-3,5.0370616E-1,-5.580861E-1,-9.612528E-1,-1.0486208E0,-1.959989E-1,-1.1639287E0,-5.873844E-1,-2.604272E-1,-6.655894E-1,2.6243308E-1,5.6079593E-2,2.6499876E-1,1.2755318E-1,1.3492732E-1,-6.755997E-2,1.2674735E-1,2.9811835E-1,3.4001954E-2,1.5766163E-1,9.365593E-2,-1.230092E-1,2.5700733E-1,9.319973E-2,2.1590818E-1,-4.0198915E-2,-5.9941877E-2,-1.9177122E-1,-2.3137653E-1,-1.2748283E-1,-7.530245E-2,-3.0559722E-1,-3.4865463E-1,-2.1839769E-1,3.027084E-2,-1.1847035E-1,-3.6477485E-1,-6.1227202E-2],"categories":[],"categories_nodes":[],"categories_segments":[],"categories_sizes":[],"default_left":[0,0,0,0,0,0,0,0,0,0,0,0,0,0,0,0,0,0,0,0,0,0,0,0,0,0,0,0,0,0,0,0,0,0,0,0,0,0,0,0,0,0,0,0,0,0,0,0,0,0,0,0,0,0,0,0,0,0,0,0,0,0,0,0,0,0,0,0,0,0,0,0,0,0,0],"id":1,"left_children":[1,3,5,7,9,11,-1,13,15,17,19,21,23,25,27,-1,29,31,33,35,37,39,41,43,45,-1,-1,47,-1,49,51,53,55,57,59,61,63,-1,-1,65,67,69,71,73,-1,-1,-1,-1,-1,-1,-1,-1,-1,-1,-1,-1,-1,-1,-1,-1,-1,-1,-1,-1,-1,-1,-1,-1,-1,-1,-1,-1,-1,-1,-1],"loss_changes":[5.18049E2,6.3087036E1,7.952194E1,4.7435028E1,1.1697559E1,1.1535492E1,0E0,1.0650635E0,1.21298065E1,6.1134243E0,4.7031627E0,7.673836E-1,1.9400635E0,1.7629318E0,3.4965515E-1,0E0,6.0398445E0,1.0097389E0,5.2301345E0,1.6033593E0,1.9644973E0,6.0369587E-1,1.0053596E0,2.7134705E0,2.4411774E-1,0E0,0E0,9.7388744E-2,0E0,8.4641266E-1,2.5977132E0,7.9089355E-1,1.9315648E-1,2.8380759E0,2.6275482E0,1.9418412E0,5.1893806E-1,0E0,0E0,3.5342932E-1,1.1125088E-1,1.7344856E-1,2.1700987E-1,1.4983253E0,0E0,0E0,0E0,0E0,0E0,0E0,0E0,0E0,0E0,0E0,0E0,0E0,0E0,0E0,0E0,0E0,0E0,0E0,0E0,0E0,0E0,0E0,0E0,0E0,0E0,0E0,0E0,0E0,0E0,0E0,0E0],"parents":[2147483647,0,0,1,1,2,2,3,3,4,4,5,5,7,7,8,8,9,9,10,10,11,11,12,12,13,13,14,14,16,16,17,17,18,18,19,19,20,20,21,21,22,22,23,23,24,24,27,27,29,29,30,30,31,31,32,32,33,33,34,34,35,35,36,36,39,39,40,40,41,41,42,42,43,43],"right_children":[2,4,6,8,10,12,-1,14,16,18,20,22,24,26,28,-1,30,32,34,36,38,40,42,44,46,-1,-1,48,-1,50,52,54,56,58,60,62,64,-1,-1,66,68,70,72,74,-1,-1,-1,-1,-1,-1,-1,-1,-1,-1,-1,-1,-1,-1,-1,-1,-1,-1,-1,-1,-1,-1,-1,-1,-1,-1,-1,-1,-1,-1,-1],"split_conditions":[2.9384E0,1.71962E0,5.45462E0,1.30187E2,2.12249E2,3.8094E0,-9.346273E-1,5.027E-1,-1.375E0,2.1557E0,7E0,3.4346E0,7.5E-1,1.24227E2,6.0052E1,5.7371986E-1,2.26276E2,1.79101E2,1.28215E2,2.82906E2,2.1298E0,2.96552E2,7E0,3.72808E2,4.04356E0,7.8625304E-1,2.6427466E-1,6.508E-1,5.461169E-1,1.4112E0,1.3004E0,8.4143E1,1.82172E2,2.4335E0,1E0,3.1578946E-1,2.0905E0,-5.6853537E-3,5.0370616E-1,3.1276E0,2.9502E0,3.6468E0,3.5141E0,6.923077E-1,-5.873844E-1,-2.604272E-1,-6.655894E-1,2.6243308E-1,5.6079593E-2,2.6499876E-1,1.2755318E-1,1.3492732E-1,-6.755997E-2,1.2674735E-1,2.9811835E-1,3.4001954E-2,1.5766163E-1,9.365593E-2,-1.230092E-1,2.5700733E-1,9.319973E-2,2.1590818E-1,-4.0198915E-2,-5.9941877E-2,-1.9177122E-1,-2.3137653E-1,-1.2748283E-1,-7.530245E-2,-3.0559722E-1,-3.4865463E-1,-2.1839769E-1,3.027084E-2,-1.1847035E-1,-3.6477485E-1,-6.1227202E-2],"split_indices":[0,0,0,1,1,0,0,0,0,0,2,0,3,1,1,0,1,1,1,1,0,1,2,1,0,0,0,0,0,0,0,1,1,0,2,3,0,0,0,0,0,0,0,3,0,0,0,0,0,0,0,0,0,0,0,0,0,0,0,0,0,0,0,0,0,0,0,0,0,0,0,0,0,0,0],"split_type":[0,0,0,0,0,0,0,0,0,0,0,0,0,0,0,0,0,0,0,0,0,0,0,0,0,0,0,0,0,0,0,0,0,0,0,0,0,0,0,0,0,0,0,0,0,0,0,0,0,0,0,0,0,0,0,0,0,0,0,0,0,0,0,0,0,0,0,0,0,0,0,0,0,0,0],"sum_hessian":[4E2,2.62E2,1.38E2,1.26E2,1.36E2,1.12E2,2.6E1,5.9E1,6.7E1,9.6E1,4E1,6E1,5.2E1,1.4E1,4.5E1,7E0,6E1,3.7E1,5.9E1,3.8E1,2E0,3.1E1,2.9E1,4.2E1,1E1,1.2E1,2E0,2E0,4.3E1,3.9E1,2.1E1,3.2E1,5E0,2E1,3.9E1,2.5E1,1.3E1,1E0,1E0,2.3E1,8E0,2.7E1,2E0,3.4E1,8E0,2E0,8E0,1E0,1E0,3.1E1,8E0,1.1E1,1E1,5E0,2.7E1,3E0,2E0,9E0,1.1E1,1.5E1,2.4E1,2E0,2.3E1,6E0,7E0,7E0,1.6E1,1E0,7E0,1.8E1,9E0,1E0,1E0,3.2E1,2E0],"tree_param":{"num_deleted":"0","num_feature":"4","num_nodes":"75","size_leaf_vector":"1"}},{"base_weights":[1.3184026E-4,6.006617E-1,-1.1114881E0,1.1585947E0,3.8198563E-1,-8.0547565E-1,-2.1286721E0,1.3722626E0,-4.19058E-2,6.0471666E-1,1.3026245E-1,-5.877779E-1,-1.036989E0,-4.367714E-1,-7.235236E-1,5.8690774E-1,1.207921E0,9.79929E-2,-3.4620142E-1,9.4597715E-1,4.520049E-1,5.783564E-1,-6.0266173E-3,-6.3955534E-1,-3.3168674E-1,-6.245127E-1,-1.1324213E0,1.279334E0,2.3615845E-1,4.62208E-2,2.2317886E-2,-1.2498706E-1,-2.0240271E-2,4.979068E-1,8.052058E-1,6.235336E-1,3.1872243E-1,2.6045877E-1,9.0199786E-1,7.424235E-2,-4.433095E-1,-5.392339E-1,-8.06496E-1,1.11189045E-1,-4.2922738E-1,-2.538275E-1,-2.85868E-1,-1.1647599E0,-5.42099E-1,3.886575E-1,9.232507E-2,-5.817032E-3,2.837248E-2,1.0102665E-1,2.6161018E-1,7.722667E-2,2.2348921E-1,-5.1220037E-2,1.0423907E-1,1.0277597E-1,-9.644205E-2,9.412356E-2,3.029529E-1,8.443571E-3,2.8221175E-1,-5.794884E-2,-2.114559E-1,-1.963564E-1,-5.25619E-3,-2.6432636E-1,4.6857193E-2,-3.261585E-2,-1.4651142E-1,-9.073303E-2,5.6802034E-3,-2.7552348E-1,-4.021659E-1,-6.322642E-2,-2.3041978E-1],"categories":[],"categories_nodes":[],"categories_segments":[],"categories_sizes":[],"default_left":[0,0,0,0,0,0,0,0,0,0,0,0,0,0,0,0,0,0,0,0,0,0,0,0,0,0,0,0,0,0,0,0,0,0,0,0,0,0,0,0,0,0,0,0,0,0,0,0,0,0,0,0,0,0,0,0,0,0,0,0,0,0,0,0,0,0,0,0,0,0,0,0,0,0,0,0,0,0,0],"id":2,"left_children":[1,3,5,7,9,11,13,15,17,19,21,23,25,-1,-1,-1,27,29,31,33,35,37,39,41,43,45,47,49,-1,-1,51,-1,-1,-1,53,55,57,59,61,63,65,67,69,-1,71,73,-1,75,77,-1,-1,-1,-1,-1,-1,-1,-1,-1,-1,-1,-1,-1,-1,-1,-1,-1,-1,-1,-1,-1,-1,-1,-1,-1,-1,-1,-1,-1,-1],"loss_changes":[2.683596E2,3.1401146E1,4.217462E1,1.8782623E1,1.0517809E1,4.934471E0,2.5828857E0,3.5883331E0,5.44772E-1,4.7838593E0,5.499813E0,5.7019234E-1,1.339695E0,0E0,0E0,0E0,5.252228E-1,3.4753762E-2,5.04075E-2,1.6777134E0,1.4244528E0,1.9256487E0,2.4899294E0,3.690014E-1,9.8113775E-1,1.2188396E0,1.5128326E-1,2.6200867E-1,0E0,0E0,1.69023E-2,0E0,0E0,0E0,5.5158997E-1,1.1419411E0,6.501589E-1,6.8364626E-1,3.1756783E-1,2.3700118E0,5.8351517E-1,1.973381E0,1.2865543E0,0E0,1.5542197E-1,9.855029E-2,0E0,4.1446304E-1,1.3761795E-1,0E0,0E0,0E0,0E0,0E0,0E0,0E0,0E0,0E0,0E0,0E0,0E0,0E0,0E0,0E0,0E0,0E0,0E0,0E0,0E0,0E0,0E0,0E0,0E0,0E0,0E0,0E0,0E0,0E0,0E0],"parents":[2147483647,0,0,1,1,2,2,3,3,4,4,5,5,6,6,7,7,8,8,9,9,10,10,11,11,12,12,16,16,17,17,18,18,19,19,20,20,21,21,22,22,23,23,24,24,25,25,26,26,27,27,30,30,34,34,35,35,36,36,37,37,38,38,39,39,40,40,41,41,42,42,44,44,45,45,47,47,48,48],"right_children":[2,4,6,8,10,12,14,16,18,20,22,24,26,-1,-1,-1,28,30,32,34,36,38,40,42,44,46,48,50,-1,-1,52,-1,-1,-1,54,56,58,60,62,64,66,68,70,-1,72,74,-1,76,78,-1,-1,-1,-1,-1,-1,-1,-1,-1,-1,-1,-1,-1,-1,-1,-1,-1,-1,-1,-1,-1,-1,-1,-1,-1,-1,-1,-1,-1,-1],"split_conditions":[2.9345E0,1.102E2,4.9536E0,1.8278E0,1.82266E2,3.7375E0,5.7372E0,5.027E-1,2.422E0,1.4112E0,1.0816E0,6E0,2.2222222E-1,-4.367714E-1,-7.235236E-1,5.8690774E-1,1.71962E0,2E0,2.6897E0,-2.1798E0,1E0,3E0,3.33266E2,2.42344E2,2.9384E0,3.6045E2,4.7235E0,4E0,2.3615845E-1,4.62208E-2,2.395E0,-1.2498706E-1,-2.0240271E-2,4.979068E-1,-7.977E-1,1.28215E2,1.5196E0,2.6832E2,2.12252E2,7E0,4E0,2.08261E2,3.6468E0,1.11189045E-1,3.1729E0,4.7938E0,-2.85868E-1,4.1983E0,2.72388E2,3.886575E-1,9.232507E-2,-5.817032E-3,2.837248E-2,1.0102665E-1,2.6161018E-1,7.722667E-2,2.2348921E-1,-5.1220037E-2,1.0423907E-1,1.0277597E-1,-9.644205E-2,9.412356E-2,3.029529E-1,8.443571E-3,2.8221175E-1,-5.794884E-2,-2.114559E-1,-1.963564E-1,-5.25619E-3,-2.6432636E-1,4.6857193E-2,-3.261585E-2,-1.4651142E-1,-9.073303E-2,5.6802034E-3,-2.7552348E-1,-4.021659E-1,-6.322642E-2,-2.3041978E-1],"split_indices":[0,1,0,0,1,0,0,0,0,0,0,2,3,0,0,0,0,2,0,0,2,2,1,1,0,1,0,2,0,0,0,0,0,0,0,1,0,1,1,2,2,1,0,0,0,0,0,0,1,0,0,0,0,0,0,0,0,0,0,0,0,0,0,0,0,0,0,0,0,0,0,0,0,0,0,0,0,0,0],"split_type":[0,0,0,0,0,0,0,0,0,0,0,0,0,0,0,0,0,0,0,0,0,0,0,0,0,0,0,0,0,0,0,0,0,0,0,0,0,0,0,0,0,0,0,0,0,0,0,0,0,0,0,0,0,0,0,0,0,0,0,0,0,0,0,0,0,0,0,0,0,0,0,0,0,0,0,0,0,0,0],"sum_hessian":[4E2,2.6E2,1.4E2,7.2E1,1.88E2,1.09E2,3.1E1,6.1E1,1.1E1,9.9E1,8.9E1,5.8E1,5.1E1,1.1E1,2E1,1.1E1,5E1,8E0,3E0,2.9E1,7E1,2E1,6.9E1,4.7E1,1.1E1,1.1E1,4E1,4.1E1,9E0,4E0,4E0,2E0,1E0,3E0,2.6E1,2.9E1,4.1E1,1.1E1,9E0,5.9E1,1E1,3.2E1,1.5E1,1E0,1E1,6E0,5E0,3.7E1,3E0,4E1,1E0,3E0,1E0,4E0,2.2E1,8E0,2.1E1,2E0,3.9E1,1E1,1E0,2E0,7E0,5.7E1,2E0,6E0,4E0,2.6E1,6E0,1.4E1,1E0,2E0,8E0,5E0,1E0,1.8E1,1.9E1,2E0,1E0],"tree_param":{"num_deleted":"0","num_feature":"4","num_nodes":"79","size_leaf_vector":"1"}},{"base_weights":[-2.1453822E-4,4.3896157E-1,-7.870702E-1,6.943548E-1,1.8991688E-1,-5.707572E-1,-1.5263296E0,1.0239793E0,3.9329848E-1,2.874962E-1,-8.87314E-2,-3.518062E-1,-7.104776E-1,-1.2021381E0,-1.9664707E0,1.1331928E0,2.0432249E-1,3.8517016E-1,3.022364E-1,4.2846683E-1,1.4918078E-1,-1.6252403E-1,7.5256467E-1,-2.4040462E-1,-5.1174176E-1,-6.354757E-1,-1.0819411E0,-9.959963E-1,-5.487725E-1,-2.9926327E-1,-6.535824E-1,1.262545E0,8.762094E-1,3.4524432E-1,-4.1844147E-1,5.6782097E-1,2.5230706E-1,-6.954731E-2,2.6059034E-1,-5.2137434E-1,-6.346935E-2,-4.7164325E-2,3.8581845E-1,-3.0605805E-1,1.3594341E-1,-2.869449E-1,-6.287084E-1,-5.045186E-1,-2.867671E-1,-1.2154418E0,-1.0958772E-1,-1.2608597E0,-7.128232E-1,3.949966E-1,1.8667403E-1,-1.0630989E-2,2.7957603E-1,1.3789645E-1,2.2249844E-2,-1.7138793E-1,6.016982E-3,4.9769737E-2,2.0403077E-1,3.192436E-2,1.0690392E-1,5.3673938E-2,-7.3177E-2,8.8995054E-2,-6.327336E-2,-3.223577E-2,-2.4148577E-1,3.6682766E-2,-8.187255E-2,-1.5634157E-1,-3.8378537E-2,7.979379E-2,-5.7630017E-2,3.9010227E-3,-1.4085437E-1,-6.966839E-2,-2.0730363E-1,-8.503227E-2,-1.9400129E-1,-5.937127E-2,-3.997597E-1,-1.2213268E-1,-4.4327757E-1,-2.8613904E-1,-1.580111E-2],"categories":[],"categories_nodes":[],"categories_segments":[],"categories_sizes":[],"default_left":[0,0,0,0,0,0,0,0,0,0,0,0,0,0,0,0,0,0,0,0,0,0,0,0,0,0,0,0,0,0,0,0,0,0,0,0,0,0,0,0,0,0,0,0,0,0,0,0,0,0,0,0,0,0,0,0,0,0,0,0,0,0,0,0,0,0,0,0,0,0,0,0,0,0,0,0,0,0,0,0,0,0,0,0,0,0,0,0,0],"id":3,"left_children":[1,3,5,7,9,11,13,15,17,19,21,23,25,27,29,31,-1,-1,33,35,37,39,41,43,45,47,49,51,-1,-1,-1,53,55,57,59,61,63,65,67,69,71,-1,-1,73,75,77,79,81,-1,83,-1,85,87,-1,-1,-1,-1,-1,-1,-1,-1,-1,-1,-1,-1,-1,-1,-1,-1,-1,-1,-1,-1,-1,-1,-1,-1,-1,-1,-1,-1,-1,-1,-1,-1,-1,-1,-1,-1],"loss_changes":[1.3891835E2,1.6278046E1,2.2156082E1,1.220018E1,3.6146312E0,3.206936E0,2.2021103E0,1.475193E0,5.1267633E0,1.8469248E0,2.2951605E0,6.965604E-1,1.2069664E0,8.9279747E-1,2.9328918E-1,3.563652E-1,0E0,0E0,2.0971403E0,1.0350666E0,1.2609115E0,1.1399202E0,1.6582798E0,7.581543E-1,2.9288244E-1,1.9934082E0,5.127392E-1,4.5127106E-1,0E0,0E0,0E0,1.16176605E-1,9.4721794E-1,1.8267603E0,2.7955866E-1,1.0605106E0,3.1118655E-1,8.235008E-1,6.4064384E-1,7.3516023E-1,1.083733E0,0E0,0E0,8.911364E-1,2.6438174E-1,4.44197E-1,1.1125183E-1,1.1994829E0,0E0,6.8943787E-1,0E0,8.787403E-1,1.699636E0,0E0,0E0,0E0,0E0,0E0,0E0,0E0,0E0,0E0,0E0,0E0,0E0,0E0,0E0,0E0,0E0,0E0,0E0,0E0,0E0,0E0,0E0,0E0,0E0,0E0,0E0,0E0,0E0,0E0,0E0,0E0,0E0,0E0,0E0,0E0,0E0],"parents":[2147483647,0,0,1,1,2,2,3,3,4,4,5,5,6,6,7,7,8,8,9,9,10,10,11,11,12,12,13,13,14,14,15,15,18,18,19,19,20,20,21,21,22,22,23,23,24,24,25,25,26,26,27,27,31,31,32,32,33,33,34,34,35,35,36,36,37,37,38,38,39,39,40,40,43,43,44,44,45,45,46,46,47,47,49,49,51,51,52,52],"right_children":[2,4,6,8,10,12,14,16,18,20,22,24,26,28,30,32,-1,-1,34,36,38,40,42,44,46,48,50,52,-1,-1,-1,54,56,58,60,62,64,66,68,70,72,-1,-1,74,76,78,80,82,-1,84,-1,86,88,-1,-1,-1,-1,-1,-1,-1,-1,-1,-1,-1,-1,-1,-1,-1,-1,-1,-1,-1,-1,-1,-1,-1,-1,-1,-1,-1,-1,-1,-1,-1,-1,-1,-1,-1,-1],"split_conditions":[2.8699E0,1.71962E0,4.9536E0,1.30187E2,2.26276E2,3.5141E0,6.372E0,2E0,-2.1798E0,2.24112E0,7E0,2.42344E2,3.72808E2,1E0,3.27123E2,1.1077E0,2.0432249E-1,3.8517016E-1,2.82906E2,1.29384E2,1.31389E2,2.45282E2,2.1298E0,6E0,4.1379312E-1,7.5E-1,4.5063E0,4.4444445E-1,-5.487725E-1,-2.9926327E-1,-6.535824E-1,1.20151E2,6.0052E1,1.3424E0,1.1789E0,8.4143E1,1.46153E2,2.4335E0,5E0,4E0,2.82906E2,-4.7164325E-2,3.8581845E-1,1.54253E2,1.79101E2,2.96552E2,2.9502E0,3E0,-2.867671E-1,3.7878E0,-1.0958772E-1,5.45462E0,3.46339E2,3.949966E-1,1.8667403E-1,-1.0630989E-2,2.7957603E-1,1.3789645E-1,2.2249844E-2,-1.7138793E-1,6.016982E-3,4.9769737E-2,2.0403077E-1,3.192436E-2,1.0690392E-1,5.3673938E-2,-7.3177E-2,8.8995054E-2,-6.327336E-2,-3.223577E-2,-2.4148577E-1,3.6682766E-2,-8.187255E-2,-1.5634157E-1,-3.8378537E-2,7.979379E-2,-5.7630017E-2,3.9010227E-3,-1.4085437E-1,-6.966839E-2,-2.0730363E-1,-8.503227E-2,-1.9400129E-1,-5.937127E-2,-3.997597E-1,-1.2213268E-1,-4.4327757E-1,-2.8613904E-1,-1.580111E-2],"split_indices":[0,0,0,1,1,0,0,2,0,0,2,1,1,3,1,0,0,0,1,1,1,1,0,2,3,3,0,3,0,0,0,1,1,0,0,1,1,0,2,2,1,0,0,1,1,1,0,2,0,0,0,0,1,0,0,0,0,0,0,0,0,0,0,0,0,0,0,0,0,0,0,0,0,0,0,0,0,0,0,0,0,0,0,0,0,0,0,0,0],"split_type":[0,0,0,0,0,0,0,0,0,0,0,0,0,0,0,0,0,0,0,0,0,0,0,0,0,0,0,0,0,0,0,0,0,0,0,0,0,0,0,0,0,0,0,0,0,0,0,0,0,0,0,0,0,0,0,0,0,0,0,0,0,0,0,0,0,0,0,0,0,0,0,0,0,0,0,0,0,0,0,0,0,0,0,0,0,0,0,0,0],"sum_hessian":[4E2,2.57E2,1.43E2,1.26E2,1.31E2,1.12E2,3.1E1,5.9E1,6.7E1,9.7E1,3.4E1,4.5E1,6.7E1,2E1,1.1E1,4.3E1,1.6E1,5E0,6.2E1,4.7E1,5E1,3.2E1,2E0,2.8E1,1.7E1,5.8E1,9E0,1.7E1,3E0,3E0,8E0,2.6E1,1.7E1,5.9E1,3E0,2.5E1,2.2E1,1.7E1,3.3E1,6E0,2.6E1,1E0,1E0,2.4E1,4E0,7E0,1E1,4.3E1,1.5E1,7E0,2E0,7E0,1E1,2.3E1,3E0,1E0,1.6E1,4.1E1,1.8E1,2E0,1E0,6E0,1.9E1,1E1,1.2E1,7E0,1E1,3.1E1,2E0,3E0,3E0,1.4E1,1.2E1,1E1,1.4E1,3E0,1E0,3E0,4E0,2E0,8E0,1.8E1,2.5E1,1E0,6E0,2E0,5E0,7E0,3E0],"tree_param":{"num_deleted":"0","num_feature":"4","num_nodes":"89","size_leaf_vector":"1"}},{"base_weights":[-5.727481E-3,3.3833125E-1,-5.4824495E-1,5.521817E-1,1.9540727E-1,-3.9173967E-1,-1.1424611E0,6.783195E-1,2.6328396E-2,2.8887764E-1,1.6207035E-1,-2.2204222E-1,-5.0957835E-1,-9.089312E-1,-4.3677995E-1,8.200077E-1,5.196733E-1,1.6013926E-1,-1.9440532E-1,1.9842575E-1,-2.543746E-1,-1.8091215E-1,-1.7421255E-1,-4.540143E-1,-8.142306E-1,-7.453836E-1,-4.2529872E-1,1.1306674E0,7.070094E-1,1.6405426E-1,4.1518077E-2,-2.8209686E-3,3.0022246E-1,-4.6129704E-2,-3.311485E-1,1.8336608E-1,3.2794565E-1,-6.227214E-2,-4.3609834E-1,-1.91872E-1,5.1774073E-2,-4.8467377E-1,1.2704599E-1,-9.0820056E-1,-8.7670185E-2,-9.5327824E-1,-5.264254E-1,3.8393053E-1,1.2176289E-1,7.672554E-2,2.2346167E-1,-3.461169E-2,1.0549892E-2,2.2404099E-2,1.352127E-1,-3.1577826E-3,-1.5719749E-2,-2.5015641E-2,-1.1578231E-1,9.8585695E-2,3.4992207E-2,5.4062128E-2,-5.859158E-2,-1.5904118E-1,5.114436E-3,-3.9337404E-2,-9.503235E-2,-8.0681175E-2,-1.6124988E-1,4.3958187E-2,1.02903135E-2,-5.0465588E-2,-2.9696432E-1,-9.770613E-2,-3.3245826E-1,-2.1102755E-1,-1.2245894E-2],"categories":[],"categories_nodes":[],"categories_segments":[],"categories_sizes":[],"default_left":[0,0,0,0,0,0,0,0,0,0,0,0,0,0,0,0,0,0,0,0,0,0,0,0,0,0,0,0,0,0,0,0,0,0,0,0,0,0,0,0,0,0,0,0,0,0,0,0,0,0,0,0,0,0,0,0,0,0,0,0,0,0,0,0,0,0,0,0,0,0,0,0,0,0,0,0,0],"id":4,"left_children":[1,3,5,7,9,11,13,15,17,-1,19,21,23,25,-1,27,29,31,33,35,37,39,-1,41,43,45,-1,47,49,-1,-1,51,53,55,57,59,-1,61,63,65,-1,67,69,71,-1,73,75,-1,-1,-1,-1,-1,-1,-1,-1,-1,-1,-1,-1,-1,-1,-1,-1,-1,-1,-1,-1,-1,-1,-1,-1,-1,-1,-1,-1,-1,-1],"loss_changes":[7.50353E1,7.4109325E0,1.4060135E1,6.482477E0,3.6563544E0,2.386469E0,1.0192223E0,1.3496475E0,6.2186337E-1,0E0,2.2306383E0,6.7679715E-1,8.660507E-1,6.905346E-1,0E0,6.0476875E-1,3.3875942E-1,2.9761085E-1,1.4692965E-1,1.5916348E0,3.9175814E-1,2.2295034E-1,0E0,1.2017355E0,2.2511339E-1,3.175335E-1,0E0,4.5317554E-1,3.562479E-1,0E0,0E0,3.3985846E-2,2.0392823E-1,5.645305E-4,2.2120416E-2,1.2410212E0,0E0,2.6099977E-1,2.647183E-1,3.2266247E-1,0E0,5.506296E-1,2.2011325E-3,3.1701994E-1,0E0,4.168663E-1,9.167595E-1,0E0,0E0,0E0,0E0,0E0,0E0,0E0,0E0,0E0,0E0,0E0,0E0,0E0,0E0,0E0,0E0,0E0,0E0,0E0,0E0,0E0,0E0,0E0,0E0,0E0,0E0,0E0,0E0,0E0,0E0],"parents":[2147483647,0,0,1,1,2,2,3,3,4,4,5,5,6,6,7,7,8,8,10,10,11,11,12,12,13,13,15,15,16,16,17,17,18,18,19,19,20,20,21,21,23,23,24,24,25,25,27,27,28,28,31,31,32,32,33,33,34,34,35,35,37,37,38,38,39,39,41,41,42,42,43,43,45,45,46,46],"right_children":[2,4,6,8,10,12,14,16,18,-1,20,22,24,26,-1,28,30,32,34,36,38,40,-1,42,44,46,-1,48,50,-1,-1,52,54,56,58,60,-1,62,64,66,-1,68,70,72,-1,74,76,-1,-1,-1,-1,-1,-1,-1,-1,-1,-1,-1,-1,-1,-1,-1,-1,-1,-1,-1,-1,-1,-1,-1,-1,-1,-1,-1,-1,-1,-1],"split_conditions":[2.783E0,1.30187E2,4.9536E0,2.1166E0,-2.1798E0,3.4587E0,6.372E0,1E0,2.4335E0,2.8887764E-1,3.02458E2,3.14466E2,3.72808E2,1E0,-4.3677995E-1,5.027E-1,1.9491E0,1.07156E2,2E0,7E0,4E0,3.09366E2,-1.7421255E-1,9E0,4.5063E0,4.4444445E-1,-4.2529872E-1,8.6134E1,6.8119E1,1.6405426E-1,4.1518077E-2,7.5498E1,1E0,2.59E0,2.4479E0,1.3114E0,3.2794565E-1,3.65842E2,4.90639E2,2.42344E2,5.1774073E-2,2.2222222E-1,3.14469E2,3.7878E0,-8.7670185E-2,5.45462E0,3.46339E2,3.8393053E-1,1.2176289E-1,7.672554E-2,2.2346167E-1,-3.461169E-2,1.0549892E-2,2.2404099E-2,1.352127E-1,-3.1577826E-3,-1.5719749E-2,-2.5015641E-2,-1.1578231E-1,9.8585695E-2,3.4992207E-2,5.4062128E-2,-5.859158E-2,-1.5904118E-1,5.114436E-3,-3.9337404E-2,-9.503235E-2,-8.0681175E-2,-1.6124988E-1,4.3958187E-2,1.02903135E-2,-5.0465588E-2,-2.9696432E-1,-9.770613E-2,-3.3245826E-1,-2.1102755E-1,-1.2245894E-2],"split_indices":[0,1,0,0,0,0,0,2,0,0,1,1,1,3,0,0,0,1,2,2,2,1,0,2,0,3,0,1,1,0,0,1,2,0,0,0,0,1,1,1,0,3,1,0,0,0,1,0,0,0,0,0,0,0,0,0,0,0,0,0,0,0,0,0,0,0,0,0,0,0,0,0,0,0,0,0,0],"split_type":[0,0,0,0,0,0,0,0,0,0,0,0,0,0,0,0,0,0,0,0,0,0,0,0,0,0,0,0,0,0,0,0,0,0,0,0,0,0,0,0,0,0,0,0,0,0,0,0,0,0,0,0,0,0,0,0,0,0,0,0,0,0,0,0,0,0,0,0,0,0,0,0,0,0,0,0,0],"sum_hessian":[4E2,2.45E2,1.55E2,9.7E1,1.48E2,1.24E2,3.1E1,7.8E1,1.9E1,5E0,1.43E2,5.2E1,7.2E1,2E1,1.1E1,3.9E1,3.9E1,1.2E1,7E0,1.32E2,1.1E1,4.8E1,4E0,6.3E1,9E0,1.7E1,3E0,8E0,3.1E1,3.6E1,3E0,6E0,6E0,4E0,3E0,1.31E2,1E0,6E0,5E0,4.7E1,1E0,6E1,3E0,7E0,2E0,7E0,1E1,6E0,2E0,3E0,2.8E1,1E0,5E0,3E0,3E0,1E0,3E0,1E0,2E0,4E1,9.1E1,2E0,4E0,4E0,1E0,3.3E1,1.4E1,1.3E1,4.7E1,2E0,1E0,1E0,6E0,2E0,5E0,7E0,3E0],"tree_param":{"num_deleted":"0","num_feature":"4","num_nodes":"77","size_leaf_vector":"1"}},{"base_weights":[-6.048697E-3,2.4324358E-1,-3.9912468E-1,3.390692E-1,4.385726E-2,-2.8125447E-1,-8.470825E-1,4.6552438E-1,1.4997898E-1,4.7019368E-1,3.4810973E-3,-2.1311568E-1,-4.5037946E-1,-7.4839836E-1,-4.0523162E-1,2.6094094E-1,4.3934628E-1,2.8347751E-1,3.0467302E-2,2.506658E-1,1.7165194E-1,1.1110401E-1,-1.6165674E-1,-1.7109394E-1,-5.363824E-1,-2.6184177E-1,-5.636026E-1,-6.65723E-1,-3.2960653E-1,-2.054515E-2,4.4547728E-1,9.090538E-2,4.104529E-1,7.066887E-2,-2.409565E-1,1.12222545E-1,-1.7934322E-2,4.142926E-2,6.741511E-1,-4.3699697E-2,-3.9320084E-1,-1.9364376E-1,9.8174706E-2,-7.421482E-1,-2.755138E-1,-3.61467E-1,1.0249436E-1,-1.8483143E-1,-1.864425E-1,-2.9245378E-3,-6.9157207E-1,2.3421703E-1,1.2775375E-1,7.273375E-2,-1.5916703E-2,-7.659853E-4,1.4641535E-1,2.8678462E-2,-6.3136846E-2,-1.186343E-1,-1.8439533E-3,2.2702247E-2,-2.0439173E-1,6.0632076E-2,2.7644348E-1,2.7670348E-2,-4.6000965E-2,-1.6248424E-1,4.009044E-2,-4.1599803E-2,-8.648473E-2,-6.363373E-2,7.9413615E-2,-2.5685772E-1,-4.289575E-2,5.5596475E-2,-1.21423565E-1,-2.3504297E-1,-5.9615236E-2,3.516655E-2,8.746792E-3,2.0469094E-2,-1.4256914E-1,-1.574198E-1,-2.4857615E-1],"categories":[],"categories_nodes":[],"categories_segments":[],"categories_sizes":[],"default_left":[0,0,0,0,0,0,0,0,0,0,0,0,0,0,0,0,0,0,0,0,0,0,0,0,0,0,0,0,0,0,0,0,0,0,0,0,0,0,0,0,0,0,0,0,0,0,0,0,0,0,0,0,0,0,0,0,0,0,0,0,0,0,0,0,0,0,0,0,0,0,0,0,0,0,0,0,0,0,0,0,0,0,0,0,0],"id":5,"left_children":[1,3,5,7,9,11,13,15,17,19,21,23,25,27,-1,-1,29,31,33,35,-1,37,39,41,43,45,47,49,-1,-1,51,53,55,57,59,-1,-1,61,63,65,67,69,71,73,75,77,79,-1,81,-1,83,-1,-1,-1,-1,-1,-1,-1,-1,-1,-1,-1,-1,-1,-1,-1,-1,-1,-1,-1,-1,-1,-1,-1,-1,-1,-1,-1,-1,-1,-1,-1,-1,-1,-1],"loss_changes":[3.9391396E1,4.6852818E0,7.9986935E0,3.899479E0,1.3926834E0,1.3445129E0,5.796814E-1,6.65596E-1,1.0762783E0,1.3286948E-2,1.3509068E0,1.144393E0,5.995641E-1,1.0842705E-1,0E0,0E0,3.2629204E-1,7.4514914E-1,4.2075965E-1,1.7561078E-1,0E0,1.7766578E0,8.0218494E-1,5.16912E-1,3.3230639E-1,5.8150434E-1,3.009677E-1,4.341221E-1,0E0,0E0,2.861824E-1,3.1828606E-1,6.1016846E-1,2.5136018E-1,1.7894965E-1,0E0,0E0,1.0910567E0,3.975098E-1,3.2711422E-1,8.542725E-1,3.5545444E-1,4.178695E-1,2.192316E-1,4.323344E-1,6.684917E-1,9.0264156E-4,0E0,3.2661086E-1,0E0,1.3670063E-1,0E0,0E0,0E0,0E0,0E0,0E0,0E0,0E0,0E0,0E0,0E0,0E0,0E0,0E0,0E0,0E0,0E0,0E0,0E0,0E0,0E0,0E0,0E0,0E0,0E0,0E0,0E0,0E0,0E0,0E0,0E0,0E0,0E0,0E0],"parents":[2147483647,0,0,1,1,2,2,3,3,4,4,5,5,6,6,7,7,8,8,9,9,10,10,11,11,12,12,13,13,16,16,17,17,18,18,19,19,21,21,22,22,23,23,24,24,25,25,26,26,27,27,30,30,31,31,32,32,33,33,34,34,37,37,38,38,39,39,40,40,41,41,42,42,43,43,44,44,45,45,46,46,48,48,50,50],"right_children":[2,4,6,8,10,12,14,16,18,20,22,24,26,28,-1,-1,30,32,34,36,-1,38,40,42,44,46,48,50,-1,-1,52,54,56,58,60,-1,-1,62,64,66,68,70,72,74,76,78,80,-1,82,-1,84,-1,-1,-1,-1,-1,-1,-1,-1,-1,-1,-1,-1,-1,-1,-1,-1,-1,-1,-1,-1,-1,-1,-1,-1,-1,-1,-1,-1,-1,-1,-1,-1,-1,-1],"split_conditions":[2.783E0,1.82266E2,4.9536E0,1.7816E0,1.254E-1,4.04356E0,8.5808E0,5.8124E1,1E0,3E0,4.1379312E-1,3.33266E2,3.75E-1,1E0,-4.0523162E-1,2.6094094E-1,6.0052E1,1.28174E2,2.6714E0,-1.0397E0,1.7165194E-1,2.2246E0,3E0,3.9591E0,2.7272728E-1,9E0,4.7235E0,5.2059E0,-3.2960653E-1,-2.054515E-2,-2.1798E0,2.1183E0,1.9491E0,1.80167E2,3E0,1.12222545E-1,-1.7934322E-2,2.2174E0,3E0,2.2482E0,6.1538464E-1,2.42344E2,1.92261E2,3.94439E2,2.777778E-1,4.2572E0,3.14469E2,-1.8483143E-1,2.72388E2,-2.9245378E-3,3E0,2.3421703E-1,1.2775375E-1,7.273375E-2,-1.5916703E-2,-7.659853E-4,1.4641535E-1,2.8678462E-2,-6.3136846E-2,-1.186343E-1,-1.8439533E-3,2.2702247E-2,-2.0439173E-1,6.0632076E-2,2.7644348E-1,2.7670348E-2,-4.6000965E-2,-1.6248424E-1,4.009044E-2,-4.1599803E-2,-8.648473E-2,-6.363373E-2,7.9413615E-2,-2.5685772E-1,-4.289575E-2,5.5596475E-2,-1.21423565E-1,-2.3504297E-1,-5.9615236E-2,3.516655E-2,8.746792E-3,2.0469094E-2,-1.4256914E-1,-1.574198E-1,-2.4857615E-1],"split_indices":[0,1,0,0,0,0,0,1,2,2,3,1,3,3,0,0,1,1,0,0,0,0,2,0,3,2,0,0,0,0,0,0,0,1,2,0,0,0,2,0,3,1,1,1,3,0,1,0,1,0,2,0,0,0,0,0,0,0,0,0,0,0,0,0,0,0,0,0,0,0,0,0,0,0,0,0,0,0,0,0,0,0,0,0,0],"split_type":[0,0,0,0,0,0,0,0,0,0,0,0,0,0,0,0,0,0,0,0,0,0,0,0,0,0,0,0,0,0,0,0,0,0,0,0,0,0,0,0,0,0,0,0,0,0,0,0,0,0,0,0,0,0,0,0,0,0,0,0,0,0,0,0,0,0,0,0,0,0,0,0,0,0,0,0,0,0,0,0,0,0,0,0,0],"sum_hessian":[4E2,2.45E2,1.55E2,1.65E2,8E1,1.24E2,3.1E1,9.8E1,6.7E1,6E0,7.4E1,9E1,3.4E1,2.8E1,3E0,4E0,9.4E1,3.1E1,3.6E1,3E0,3E0,4.5E1,2.9E1,8.1E1,9E0,1.4E1,2E1,2.5E1,3E0,1E0,9.3E1,1.3E1,1.8E1,3.2E1,4E0,2E0,1E0,4.1E1,4E0,2E1,9E0,7.5E1,6E0,4E0,5E0,1.1E1,3E0,1.7E1,3E0,1E0,2.4E1,3E0,9E1,6E0,7E0,3E0,1.5E1,3E1,2E0,2E0,2E0,4E1,1E0,2E0,2E0,9E0,1.1E1,7E0,2E0,4.9E1,2.6E1,2E0,4E0,3E0,1E0,1E0,4E0,2E0,9E0,2E0,1E0,2E0,1E0,1.3E1,1.1E1],"tree_param":{"num_deleted":"0","num_feature":"4","num_nodes":"85","size_leaf_vector":"1"}},{"base_weights":[-7.348345E-3,1.6174464E-1,-3.1690347E-1,2.2870427E-1,-3.633743E-4,-2.2416112E-1,-6.2870026E-1,3.3935603E-1,1.2146887E-1,1.5945914E-1,-8.9856714E-2,-1.9560686E-1,-4.929986E-1,-4.8572916E-1,-8.26508E-1,3.0855045E-1,2.7736157E-1,1.0708987E-1,1.2654564E-1,8.902149E-2,2.1502972E-1,-4.9668416E-1,-3.3616237E-2,-1.5752539E-1,-1.7680077E-1,-5.434819E-1,-5.8213092E-2,-3.7746546E-1,-2.5544506E-1,-9.823405E-2,-9.564788E-1,5.60834E-1,2.4820203E-1,1.2954901E-1,-7.006823E-2,1.3303025E-1,2.3514006E-2,1.10362925E-1,-7.431716E-1,1.546778E-1,-9.18339E-2,-2.3273397E-2,-2.1343048E-1,-3.646138E-2,-1.7591912E-1,-4.205122E-1,-2.206103E-2,-2.96247E-1,-3.3083862E-1,1.9036533E-1,8.962899E-3,1.8151818E-1,6.717523E-2,2.6435666E-2,1.5052885E-1,-3.7382994E-2,3.5073925E-2,-1.2075665E-2,1.3861187E-1,-2.5948817E-1,-3.8402367E-2,9.235087E-2,-5.7092573E-2,-8.94079E-2,-5.9105507E-3,9.4682194E-2,-1.7316042E-2,-2.1033989E-1,-5.3421374E-2,-7.812098E-2,-1.7674984E-1,3.848462E-2,-4.841209E-2,-6.0414793E-3,-1.2726969E-1],"categories":[],"categories_nodes":[],"categories_segments":[],"categories_sizes":[],"default_left":[0,0,0,0,0,0,0,0,0,0,0,0,0,0,0,0,0,0,0,0,0,0,0,0,0,0,0,0,0,0,0,0,0,0,0,0,0,0,0,0,0,0,0,0,0,0,0,0,0,0,0,0,0,0,0,0,0,0,0,0,0,0,0,0,0,0,0,0,0,0,0,0,0,0,0],"id":6,"left_children":[1,3,5,7,9,11,13,15,17,19,21,23,25,27,29,31,-1,33,-1,35,-1,37,39,-1,41,43,-1,45,-1,-1,47,49,51,53,55,-1,57,-1,59,61,63,65,67,-1,-1,69,71,73,-1,-1,-1,-1,-1,-1,-1,-1,-1,-1,-1,-1,-1,-1,-1,-1,-1,-1,-1,-1,-1,-1,-1,-1,-1,-1,-1],"loss_changes":[2.104104E1,2.8223028E0,3.965251E0,2.1420841E0,1.1156634E0,7.556529E-1,5.035267E-1,1.3371534E0,3.6510718E-1,1.0353426E0,1.1273117E0,5.391748E-1,4.5463324E-2,5.101509E-1,4.6516418E-1,1.1853666E0,0E0,3.751284E-1,0E0,5.9320676E-1,0E0,1.5520152E0,5.0749636E-1,0E0,5.4615164E-1,7.359266E-2,0E0,2.6610518E-1,0E0,0E0,5.427265E-1,6.0729265E-1,4.884801E-1,1.2202961E0,1.267497E-1,0E0,6.6174984E-1,0E0,2.6387882E-1,6.397972E-1,5.1468635E-1,2.516836E-1,1.2374868E0,0E0,0E0,2.7862716E-1,8.3535396E-2,9.7470224E-2,0E0,0E0,0E0,0E0,0E0,0E0,0E0,0E0,0E0,0E0,0E0,0E0,0E0,0E0,0E0,0E0,0E0,0E0,0E0,0E0,0E0,0E0,0E0,0E0,0E0,0E0,0E0],"parents":[2147483647,0,0,1,1,2,2,3,3,4,4,5,5,6,6,7,7,8,8,9,9,10,10,11,11,12,12,13,13,14,14,15,15,17,17,19,19,21,21,22,22,24,24,25,25,27,27,30,30,31,31,32,32,33,33,34,34,36,36,38,38,39,39,40,40,41,41,42,42,45,45,46,46,47,47],"right_children":[2,4,6,8,10,12,14,16,18,20,22,24,26,28,30,32,-1,34,-1,36,-1,38,40,-1,42,44,-1,46,-1,-1,48,50,52,54,56,-1,58,-1,60,62,64,66,68,-1,-1,70,72,74,-1,-1,-1,-1,-1,-1,-1,-1,-1,-1,-1,-1,-1,-1,-1,-1,-1,-1,-1,-1,-1,-1,-1,-1,-1,-1,-1],"split_conditions":[2.9035E0,2.12249E2,4.9536E0,1.70062E0,3.1578946E-1,3.80913E2,6.372E0,1.69844E0,2.06289E2,2.1814E0,3.75E-1,1.28558E2,4.5063E0,1E0,3.27123E2,8.6134E1,2.7736157E-1,1.80167E2,1.2654564E-1,1.254E-1,2.1502972E-1,1.2492E0,3.846154E-1,-1.5752539E-1,2.2222222E-1,3.7878E0,-5.8213092E-2,6.25676E0,-2.5544506E-1,-9.823405E-2,2.2222222E-1,1.0978E0,-2.1798E0,1.60169E2,2.85164E0,1.3303025E-1,2.9411766E-1,1.10362925E-1,2.78354E2,2.1218E0,2.45282E2,2.9384E0,2.777778E-1,-3.646138E-2,-1.7591912E-1,3E0,6.31708E0,8.5808E0,-3.3083862E-1,1.9036533E-1,8.962899E-3,1.8151818E-1,6.717523E-2,2.6435666E-2,1.5052885E-1,-3.7382994E-2,3.5073925E-2,-1.2075665E-2,1.3861187E-1,-2.5948817E-1,-3.8402367E-2,9.235087E-2,-5.7092573E-2,-8.94079E-2,-5.9105507E-3,9.4682194E-2,-1.7316042E-2,-2.1033989E-1,-5.3421374E-2,-7.812098E-2,-1.7674984E-1,3.848462E-2,-4.841209E-2,-6.0414793E-3,-1.2726969E-1],"split_indices":[0,1,0,0,3,1,0,0,1,0,3,1,0,3,1,1,0,1,0,0,0,0,3,0,3,0,0,0,0,0,3,0,0,1,0,0,3,0,1,0,1,0,3,0,0,2,0,0,0,0,0,0,0,0,0,0,0,0,0,0,0,0,0,0,0,0,0,0,0,0,0,0,0,0,0],"split_type":[0,0,0,0,0,0,0,0,0,0,0,0,0,0,0,0,0,0,0,0,0,0,0,0,0,0,0,0,0,0,0,0,0,0,0,0,0,0,0,0,0,0,0,0,0,0,0,0,0,0,0,0,0,0,0,0,0,0,0,0,0,0,0,0,0,0,0,0,0,0,0,0,0,0,0],"sum_hessian":[4E2,2.59E2,1.41E2,1.83E2,7.6E1,1.1E2,3.1E1,8.9E1,9.4E1,2.7E1,4.9E1,1.01E2,9E0,2E1,1.1E1,8.6E1,3E0,9.1E1,3E0,2.5E1,2E0,5E0,4.4E1,4E0,9.7E1,7E0,2E0,1.7E1,3E0,3E0,8E0,1.5E1,7.1E1,8.1E1,1E1,3E0,2.2E1,1E0,4E0,1E1,3.4E1,1.9E1,7.8E1,1E0,6E0,1.5E1,2E0,2E0,6E0,1.3E1,2E0,3E0,6.8E1,7.4E1,7E0,8E0,2E0,2E1,2E0,3E0,1E0,7E0,3E0,8E0,2.6E1,1E0,1.8E1,4E0,7.4E1,9E0,6E0,1E0,1E0,1E0,1E0],"tree_param":{"num_deleted":"0","num_feature":"4","num_nodes":"75","size_leaf_vector":"1"}},{"base_weights":[-6.249912E-3,1.0694551E-1,-2.6599145E-1,2.3453869E-1,5.3832006E-2,-1.5004751E-1,-4.1410622E-1,3.6603993E-1,1.3376614E-1,1.0291349E-1,-6.7261145E-2,-2.4656868E-1,-3.4355033E-2,-3.709837E-1,-2.548835E-1,4.8200312E-1,2.2974123E-1,-3.053174E-1,1.8062186E-1,1.5208225E-1,9.401326E-3,-3.2009125E-1,-1.2776927E-3,-1.0402385E-1,-3.570086E-1,-1.4698446E-1,8.0295265E-2,-2.4830684E-1,-5.041997E-1,3.58338E-1,2.4757399E-1,3.4728047E-1,1.7135283E-1,-1.7272014E-2,-1.0585802E-1,1.5980479E-1,1.3209872E-1,1.9271158E-1,6.0336933E-2,-2.3782551E-1,5.517838E-2,-4.246416E-1,-4.830122E-3,-2.9068606E-2,4.160119E-1,-1.1910405E-1,-1.8958362E-2,-4.105282E-3,-4.3980318E-1,-3.1451624E-2,-3.535527E-1,1.8251854E-1,-6.0463287E-2,-8.505991E-2,-4.301256E-1,-1.605249E-1,-2.860031E-1,1.6879839E-1,1.3333636E-2,1.3716364E-1,3.6476612E-2,5.004953E-3,6.360565E-2,1.0976371E-1,1.8665979E-2,5.1382847E-2,1.7144196E-1,7.644539E-2,-1.4893345E-2,-1.0887314E-2,-8.968656E-2,2.4017835E-2,-6.2228058E-2,-6.342292E-3,-1.6107222E-1,-2.0950664E-2,1.203506E-2,1.4049429E-1,-1.5304881E-2,-1.7827464E-2,2.0503283E-1,4.47354E-2,-2.8089967E-2,8.202141E-2,-8.407405E-2,-1.408308E-1,5.148268E-3,-5.8482293E-2,3.395256E-2,4.8618045E-2,-1.4672619E-1,8.7116085E-2,2.4822713E-3,-1.5836242E-1,-6.1041834E-3,-1.4220317E-1,-3.775168E-2,-1.2360714E-1,3.2711938E-2],"categories":[],"categories_nodes":[],"categories_segments":[],"categories_sizes":[],"default_left":[0,0,0,0,0,0,0,0,0,0,0,0,0,0,0,0,0,0,0,0,0,0,0,0,0,0,0,0,0,0,0,0,0,0,0,0,0,0,0,0,0,0,0,0,0,0,0,0,0,0,0,0,0,0,0,0,0,0,0,0,0,0,0,0,0,0,0,0,0,0,0,0,0,0,0,0,0,0,0,0,0,0,0,0,0,0,0,0,0,0,0,0,0,0,0,0,0,0,0],"id":7,"left_children":[1,3,5,7,9,11,13,15,17,19,21,23,25,27,-1,29,31,33,35,37,39,41,43,45,47,49,51,53,55,57,-1,59,61,-1,-1,-1,63,65,67,69,71,73,75,77,79,-1,81,83,85,87,89,91,-1,93,95,-1,97,-1,-1,-1,-1,-1,-1,-1,-1,-1,-1,-1,-1,-1,-1,-1,-1,-1,-1,-1,-1,-1,-1,-1,-1,-1,-1,-1,-1,-1,-1,-1,-1,-1,-1,-1,-1,-1,-1,-1,-1,-1,-1],"loss_changes":[1.1818469E1,1.8849125E0,2.0329723E0,1.0376773E0,1.1896648E0,7.7320325E-1,6.8015385E-1,4.42461E-1,1.0426786E0,6.514689E-1,9.6718204E-1,5.610826E-1,4.3793103E-1,6.9192934E-1,0E0,4.6833324E-1,6.402522E-2,3.8576663E-2,6.8128943E-1,3.3503485E-1,5.789886E-1,3.9347684E-1,5.571452E-1,4.4109285E-1,6.1178255E-1,3.9459223E-1,5.2656513E-1,7.944914E-1,1.953125E-3,9.3702567E-1,0E0,6.846148E-2,8.451998E-2,0E0,0E0,0E0,6.3068634E-1,4.2173076E-1,6.543293E-1,8.77085E-2,2.9756406E-1,3.963431E-1,1.4488775E-2,5.151293E-1,4.2205286E-1,0E0,2.0222855E-1,4.5978093E-1,2.3825502E-1,3.058018E-1,4.985618E-1,2.4193817E-1,0E0,4.4775057E-1,1.1394787E-1,0E0,2.9384482E-1,0E0,0E0,0E0,0E0,0E0,0E0,0E0,0E0,0E0,0E0,0E0,0E0,0E0,0E0,0E0,0E0,0E0,0E0,0E0,0E0,0E0,0E0,0E0,0E0,0E0,0E0,0E0,0E0,0E0,0E0,0E0,0E0,0E0,0E0,0E0,0E0,0E0,0E0,0E0,0E0,0E0,0E0],"parents":[2147483647,0,0,1,1,2,2,3,3,4,4,5,5,6,6,7,7,8,8,9,9,10,10,11,11,12,12,13,13,15,15,16,16,17,17,18,18,19,19,20,20,21,21,22,22,23,23,24,24,25,25,26,26,27,27,28,28,29,29,31,31,32,32,36,36,37,37,38,38,39,39,40,40,41,41,42,42,43,43,44,44,46,46,47,47,48,48,49,49,50,50,51,51,53,53,54,54,56,56],"right_children":[2,4,6,8,10,12,14,16,18,20,22,24,26,28,-1,30,32,34,36,38,40,42,44,46,48,50,52,54,56,58,-1,60,62,-1,-1,-1,64,66,68,70,72,74,76,78,80,-1,82,84,86,88,90,92,-1,94,96,-1,98,-1,-1,-1,-1,-1,-1,-1,-1,-1,-1,-1,-1,-1,-1,-1,-1,-1,-1,-1,-1,-1,-1,-1,-1,-1,-1,-1,-1,-1,-1,-1,-1,-1,-1,-1,-1,-1,-1,-1,-1,-1,-1],"split_conditions":[3.22838E0,1.3114E0,4.30142E0,1.30187E2,2.26276E2,5.1428574E-1,8.5808E0,1E0,1.3821E2,2.3486E0,2.45282E2,2.2222222E-1,3.6023E0,6.111111E-1,-2.548835E-1,9.834E-1,1.254E-1,1.3513E2,1.48125E2,1.44214E2,1.1616E2,2.6698E0,8E0,1.3702E2,2.65914E2,3.4587E0,9.230769E-1,3.72505E2,2E0,5.027E-1,2.4757399E-1,8.9525E1,5.694E-1,-1.7272014E-2,-1.0585802E-1,1.5980479E-1,-1.0397E0,1.3821E2,4.1379312E-1,2.422E0,9.230769E-1,1.3755E0,2.79932E0,2.48307E2,2.1298E0,-1.1910405E-1,3E0,3E0,4.2572E0,7.2727275E-1,1.63003E2,2.93414E2,-6.0463287E-2,1.98653E2,6.6206E0,-1.605249E-1,6.923077E-1,1.6879839E-1,1.3333636E-2,1.3716364E-1,3.6476612E-2,5.004953E-3,6.360565E-2,1.0976371E-1,1.8665979E-2,5.1382847E-2,1.7144196E-1,7.644539E-2,-1.4893345E-2,-1.0887314E-2,-8.968656E-2,2.4017835E-2,-6.2228058E-2,-6.342292E-3,-1.6107222E-1,-2.0950664E-2,1.203506E-2,1.4049429E-1,-1.5304881E-2,-1.7827464E-2,2.0503283E-1,4.47354E-2,-2.8089967E-2,8.202141E-2,-8.407405E-2,-1.408308E-1,5.148268E-3,-5.8482293E-2,3.395256E-2,4.8618045E-2,-1.4672619E-1,8.7116085E-2,2.4822713E-3,-1.5836242E-1,-6.1041834E-3,-1.4220317E-1,-3.775168E-2,-1.2360714E-1,3.2711938E-2],"split_indices":[0,0,0,1,1,3,0,2,1,0,1,3,0,3,0,0,0,1,1,1,1,0,2,1,1,0,3,1,2,0,0,1,0,0,0,0,0,1,3,0,3,0,0,1,0,0,2,2,0,3,1,1,0,1,0,0,3,0,0,0,0,0,0,0,0,0,0,0,0,0,0,0,0,0,0,0,0,0,0,0,0,0,0,0,0,0,0,0,0,0,0,0,0,0,0,0,0,0,0],"split_type":[0,0,0,0,0,0,0,0,0,0,0,0,0,0,0,0,0,0,0,0,0,0,0,0,0,0,0,0,0,0,0,0,0,0,0,0,0,0,0,0,0,0,0,0,0,0,0,0,0,0,0,0,0,0,0,0,0,0,0,0,0,0,0,0,0,0,0,0,0,0,0,0,0,0,0,0,0,0,0,0,0,0,0,0,0,0,0,0,0,0,0,0,0,0,0,0,0,0,0],"sum_hessian":[4E2,2.79E2,1.21E2,8.1E1,1.98E2,6.9E1,5.2E1,3.4E1,4.7E1,1.41E2,5.7E1,3.7E1,3.2E1,4.9E1,3E0,1.7E1,1.7E1,4E0,4.3E1,9.2E1,4.9E1,1.1E1,4.6E1,1.7E1,2E1,1.6E1,1.6E1,2.7E1,2.2E1,1.4E1,3E0,4E0,1.3E1,1E0,3E0,4E0,3.9E1,6.3E1,2.9E1,7E0,4.2E1,8E0,3E0,4.4E1,2E0,3E0,1.4E1,4E0,1.6E1,1.1E1,5E0,1.2E1,4E0,1.5E1,1.2E1,1.8E1,4E0,8E0,6E0,2E0,2E0,3E0,1E1,8E0,3.1E1,6.1E1,2E0,1E1,1.9E1,2E0,5E0,3.9E1,3E0,2E0,6E0,1E0,2E0,1E0,4.3E1,1E0,1E0,4E0,1E1,2E0,2E0,1.5E1,1E0,5E0,6E0,1E0,4E0,7E0,5E0,1E0,1.4E1,1E1,2E0,3E0,1E0],"tree_param":{"num_deleted":"0","num_feature":"4","num_nodes":"99","size_leaf_vector":"1"}},{"base_weights":[-4.538793E-3,1.004349E-1,-1.56851E-1,1.6901392E-1,5.2881386E-2,-8.4906206E-2,-3.0592582E-1,2.1560404E-1,-3.359835E-2,3.212959E-1,4.0740013E-2,-4.3444224E-2,-1.413229E-1,-2.7160543E-1,-1.975347E-1,2.8668672E-1,1.3913125E-1,-7.901178E-2,7.048318E-2,1.09205164E-1,1.6153403E-2,5.1591497E-2,-2.560575E-1,-2.062801E-1,-1.7427549E-2,-1.4231527E-1,-9.930826E-2,-4.3396533E-1,-2.0891376E-1,3.4713656E-1,2.0160338E-1,2.7782437E-1,1.16003565E-1,-1.2921815E-1,1.1646342E-1,2.4644258E-2,1.7295003E-1,-9.8546065E-2,5.0489902E-3,2.5558352E-2,-9.793772E-2,-4.5507585E-4,-1.6444647E-1,-1.2526469E-1,1.8508309E-1,-3.317955E-1,-1.9917984E-1,1.3853006E-1,-2.5386393E-1,1.13556795E-1,3.338055E-2,-2.9909635E-2,1.04500525E-1,1.097309E-1,2.918129E-2,1.8184191E-3,4.1336987E-2,-5.9225682E-2,9.908116E-3,1.1013358E-1,-2.6837016E-2,1.1473371E-2,-1.419545E-1,1.04352705E-1,-1.9608866E-2,1.5280152E-2,-7.585216E-3,-6.6886835E-2,3.7926428E-3,3.1062521E-2,-7.162574E-2,-1.9427698E-2,-6.359274E-2,1.1831829E-1,-4.845619E-3,-1.2479415E-1,9.407378E-3,6.2210765E-2,-2.0523978E-2,-2.9165698E-2,-1.0046627E-1],"categories":[],"categories_nodes":[],"categories_segments":[],"categories_sizes":[],"default_left":[0,0,0,0,0,0,0,0,0,0,0,0,0,0,0,0,0,0,0,0,0,0,0,0,0,0,0,0,0,0,0,0,0,0,0,0,0,0,0,0,0,0,0,0,0,0,0,0,0,0,0,0,0,0,0,0,0,0,0,0,0,0,0,0,0,0,0,0,0,0,0,0,0,0,0,0,0,0,0,0,0],"id":8,"left_children":[1,3,5,7,9,11,13,15,17,19,21,23,25,27,-1,29,31,33,-1,-1,-1,35,37,39,41,-1,43,45,47,49,51,53,55,57,59,61,63,-1,-1,65,-1,67,69,71,73,75,-1,77,79,-1,-1,-1,-1,-1,-1,-1,-1,-1,-1,-1,-1,-1,-1,-1,-1,-1,-1,-1,-1,-1,-1,-1,-1,-1,-1,-1,-1,-1,-1,-1,-1],"loss_changes":[6.427252E0,7.672217E-1,1.7329507E0,9.228976E-1,4.496772E-1,2.5584483E-1,4.6239424E-1,3.8954782E-1,2.5027645E-1,4.8954844E-2,4.5444545E-1,2.760106E-1,6.1058193E-1,4.182694E-1,0E0,1.3574743E-1,9.607744E-2,1.8188886E-1,0E0,0E0,0E0,4.306847E-1,1.04353726E-1,2.5910264E-1,1.446511E-1,0E0,3.4060103E-1,8.515453E-2,6.28639E-1,1.20747805E-1,8.747294E-1,4.3815345E-2,8.539352E-2,1.6143365E-1,2.3929492E-1,7.628612E-1,1.0230343E0,0E0,0E0,6.448416E-3,0E0,1.572683E-1,1.4419961E-1,1.9613326E-1,1.7485335E-1,3.4933698E-1,0E0,8.54158E-2,3.9896846E-1,0E0,0E0,0E0,0E0,0E0,0E0,0E0,0E0,0E0,0E0,0E0,0E0,0E0,0E0,0E0,0E0,0E0,0E0,0E0,0E0,0E0,0E0,0E0,0E0,0E0,0E0,0E0,0E0,0E0,0E0,0E0,0E0],"parents":[2147483647,0,0,1,1,2,2,3,3,4,4,5,5,6,6,7,7,8,8,9,9,10,10,11,11,12,12,13,13,15,15,16,16,17,17,21,21,22,22,23,23,24,24,26,26,27,27,28,28,29,29,30,30,31,31,32,32,33,33,34,34,35,35,36,36,39,39,41,41,42,42,43,43,44,44,45,45,47,47,48,48],"right_children":[2,4,6,8,10,12,14,16,18,20,22,24,26,28,-1,30,32,34,-1,-1,-1,36,38,40,42,-1,44,46,48,50,52,54,56,58,60,62,64,-1,-1,66,-1,68,70,72,74,76,-1,78,80,-1,-1,-1,-1,-1,-1,-1,-1,-1,-1,-1,-1,-1,-1,-1,-1,-1,-1,-1,-1,-1,-1,-1,-1,-1,-1,-1,-1,-1,-1,-1,-1],"split_conditions":[2.71412E0,1.30187E2,4.30142E0,2.1166E0,-2.1798E0,2.65914E2,8.5808E0,1E0,7.7272725E-1,3.42875E2,3.72505E2,1.28558E2,2.73723E2,2.52731E2,-1.975347E-1,1.4455E0,1.254E-1,3E0,7.048318E-2,1.09205164E-1,1.6153403E-2,2.59762E2,4.90639E2,2.82402E0,9.3333334E-1,-1.4231527E-1,7.2727275E-1,5.5051E0,2.72388E2,1.102E2,1.69844E0,8.9525E1,8.4143E1,1.21183E2,2.1756E0,2.57769E2,4.7826087E-1,-9.8546065E-2,5.0489902E-3,2.2222222E-1,-9.793772E-2,2.7307E0,1.80167E2,3.33266E2,7.3333335E-1,2.29715E2,-1.9917984E-1,4.9536E0,3.75E-1,1.13556795E-1,3.338055E-2,-2.9909635E-2,1.04500525E-1,1.097309E-1,2.918129E-2,1.8184191E-3,4.1336987E-2,-5.9225682E-2,9.908116E-3,1.1013358E-1,-2.6837016E-2,1.1473371E-2,-1.419545E-1,1.04352705E-1,-1.9608866E-2,1.5280152E-2,-7.585216E-3,-6.6886835E-2,3.7926428E-3,3.1062521E-2,-7.162574E-2,-1.9427698E-2,-6.359274E-2,1.1831829E-1,-4.845619E-3,-1.2479415E-1,9.407378E-3,6.2210765E-2,-2.0523978E-2,-2.9165698E-2,-1.0046627E-1],"split_indices":[0,1,0,0,0,1,0,2,3,1,1,1,1,1,0,0,0,2,0,0,0,1,1,0,3,0,3,0,1,1,0,1,1,1,0,1,3,0,0,3,0,0,1,1,3,1,0,0,3,0,0,0,0,0,0,0,0,0,0,0,0,0,0,0,0,0,0,0,0,0,0,0,0,0,0,0,0,0,0,0,0],"split_type":[0,0,0,0,0,0,0,0,0,0,0,0,0,0,0,0,0,0,0,0,0,0,0,0,0,0,0,0,0,0,0,0,0,0,0,0,0,0,0,0,0,0,0,0,0,0,0,0,0,0,0,0,0,0,0,0,0,0,0,0,0,0,0,0,0,0,0,0,0,0,0,0,0,0,0,0,0,0,0,0,0],"sum_hessian":[4E2,2.37E2,1.63E2,9.6E1,1.41E2,1.11E2,5.2E1,7.8E1,1.8E1,5E0,1.36E2,6.5E1,4.6E1,4.9E1,3E0,3.9E1,3.9E1,1.6E1,2E0,4E0,1E0,1.32E2,4E0,8E0,5.7E1,4E0,4.2E1,1.2E1,3.7E1,2.1E1,1.8E1,4E0,3.5E1,1.3E1,3E0,1.09E2,2.3E1,3E0,1E0,3E0,5E0,5.2E1,5E0,3.9E1,3E0,1E1,2E0,4E0,3.3E1,1.8E1,3E0,6E0,1.2E1,2E0,2E0,6E0,2.9E1,9E0,4E0,1E0,2E0,1.07E2,2E0,1.3E1,1E1,2E0,1E0,2E0,5E1,1E0,4E0,2.4E1,1.5E1,1E0,2E0,8E0,2E0,3E0,1E0,1.2E1,2.1E1],"tree_param":{"num_deleted":"0","num_feature":"4","num_nodes":"81","size_leaf_vector":"1"}},{"base_weights":[-4.203662E-3,5.8274377E-2,-1.4756142E-1,7.2518155E-2,-1.530805E-1,-1.11943245E-1,-3.2361698E-1,1.473208E-1,4.0759414E-2,-1.2874812E-2,-2.4113186E-1,-1.2821348E-1,1.724612E-1,-1.9255082E-1,-5.395183E-1,1.0186015E-1,3.0445257E-1,3.291155E-2,1.5255256E-1,-3.7090804E-2,2.0610502E-2,2.5602015E-2,-3.231634E-1,-7.2527826E-2,-2.0073417E-1,-2.2001743E-2,8.255793E-2,-2.4370414E-1,-3.7415028E-3,-1.8431711E-1,-7.046762E-2,6.1251737E-2,3.3419287E-1,1.6713792E-1,1.5274462E-1,5.8132265E-2,-5.1140837E-2,6.33832E-2,-1.7264249E-2,-3.9353064E-1,-5.125205E-2,-1.0708724E-1,2.3907506E-1,-1.5206698E-1,-3.412625E-1,-1.4855647E-2,4.954863E-3,-3.285885E-4,-8.035665E-2,-4.7648433E-3,4.902363E-3,6.408771E-2,-1.2656103E-2,1.4739573E-1,4.4866027E-3,4.305825E-3,7.486367E-2,1.4434264E-2,8.315672E-2,-7.880269E-2,1.17651E-2,2.331481E-2,8.376789E-3,-1.4321698E-1,-3.6776494E-2,4.291642E-3,-2.7355064E-2,-2.446983E-2,-1.4902316E-1,-3.0602897E-2,9.830818E-2,5.224834E-2,-6.496261E-2,-1.21364154E-1,-1.762476E-2],"categories":[],"categories_nodes":[],"categories_segments":[],"categories_sizes":[],"default_left":[0,0,0,0,0,0,0,0,0,0,0,0,0,0,0,0,0,0,0,0,0,0,0,0,0,0,0,0,0,0,0,0,0,0,0,0,0,0,0,0,0,0,0,0,0,0,0,0,0,0,0,0,0,0,0,0,0,0,0,0,0,0,0,0,0,0,0,0,0,0,0,0,0,0,0],"id":9,"left_children":[1,3,5,7,9,11,13,15,17,19,21,23,25,27,29,31,33,35,-1,-1,37,-1,39,41,43,45,-1,47,49,-1,-1,51,53,-1,55,57,59,61,-1,63,65,67,69,71,73,-1,-1,-1,-1,-1,-1,-1,-1,-1,-1,-1,-1,-1,-1,-1,-1,-1,-1,-1,-1,-1,-1,-1,-1,-1,-1,-1,-1,-1,-1],"loss_changes":[3.6002405E0,8.540387E-1,7.288084E-1,6.1878836E-1,2.191109E-1,4.987266E-1,4.6206236E-1,5.261667E-1,6.6603875E-1,3.2219186E-2,3.2216978E-1,3.8120067E-1,1.2592001E-1,1.3430327E-1,1.5340567E-2,5.6447923E-1,5.665568E-1,3.9302737E-1,0E0,0E0,2.704874E-2,0E0,1.5203363E-1,6.394242E-1,2.3534834E-1,3.997568E-3,0E0,6.4159274E-2,1.2348657E-3,0E0,0E0,8.6012626E-1,4.440974E-1,0E0,1.5717593E-1,2.9828534E-1,8.321958E-1,3.7121587E-4,0E0,1.00524664E-1,9.157853E-3,4.7659558E-1,2.1478721E-1,7.318211E-1,1.5502071E-1,0E0,0E0,0E0,0E0,0E0,0E0,0E0,0E0,0E0,0E0,0E0,0E0,0E0,0E0,0E0,0E0,0E0,0E0,0E0,0E0,0E0,0E0,0E0,0E0,0E0,0E0,0E0,0E0,0E0,0E0],"parents":[2147483647,0,0,1,1,2,2,3,3,4,4,5,5,6,6,7,7,8,8,9,9,10,10,11,11,12,12,13,13,14,14,15,15,16,16,17,17,20,20,22,22,23,23,24,24,25,25,27,27,28,28,31,31,32,32,34,34,35,35,36,36,37,37,39,39,40,40,41,41,42,42,43,43,44,44],"right_children":[2,4,6,8,10,12,14,16,18,20,22,24,26,28,30,32,34,36,-1,-1,38,-1,40,42,44,46,-1,48,50,-1,-1,52,54,-1,56,58,60,62,-1,64,66,68,70,72,74,-1,-1,-1,-1,-1,-1,-1,-1,-1,-1,-1,-1,-1,-1,-1,-1,-1,-1,-1,-1,-1,-1,-1,-1,-1,-1,-1,-1,-1,-1],"split_conditions":[3.22838E0,3.14466E2,3.72808E2,1.3114E0,4E0,3.67816E2,4.2857143E-1,1.0258E0,7E0,6.508E-1,-3.5854E0,4.217E0,4.3002E0,4.29772E2,4.34294E2,4E0,1.1077E0,2.26276E2,1.5255256E-1,-3.7090804E-2,2.4879E0,2.5602015E-2,4.16304E2,8E0,8.75E-1,4.2572E0,8.255793E-2,3.7878E0,6.372E0,-1.8431711E-1,-7.046762E-2,8.9525E1,2.18253E2,1.6713792E-1,1.185E0,2.15894E2,1.8098E0,2.00904E0,-1.7264249E-2,2.9801E0,1.3421E0,3.33266E2,3.326E0,1E0,5.76304E0,-1.4855647E-2,4.954863E-3,-3.285885E-4,-8.035665E-2,-4.7648433E-3,4.902363E-3,6.408771E-2,-1.2656103E-2,1.4739573E-1,4.4866027E-3,4.305825E-3,7.486367E-2,1.4434264E-2,8.315672E-2,-7.880269E-2,1.17651E-2,2.331481E-2,8.376789E-3,-1.4321698E-1,-3.6776494E-2,4.291642E-3,-2.7355064E-2,-2.446983E-2,-1.4902316E-1,-3.0602897E-2,9.830818E-2,5.224834E-2,-6.496261E-2,-1.21364154E-1,-1.762476E-2],"split_indices":[0,1,1,0,2,1,3,0,2,0,0,0,0,1,1,2,0,1,0,0,0,0,1,2,3,0,0,0,0,0,0,1,1,0,0,1,0,0,0,0,0,1,0,2,0,0,0,0,0,0,0,0,0,0,0,0,0,0,0,0,0,0,0,0,0,0,0,0,0,0,0,0,0,0,0],"split_type":[0,0,0,0,0,0,0,0,0,0,0,0,0,0,0,0,0,0,0,0,0,0,0,0,0,0,0,0,0,0,0,0,0,0,0,0,0,0,0,0,0,0,0,0,0,0,0,0,0,0,0,0,0,0,0,0,0,0,0,0,0,0,0,0,0,0,0,0,0,0,0,0,0,0,0],"sum_hessian":[4E2,2.79E2,1.21E2,2.62E2,1.7E1,1.02E2,1.9E1,7.7E1,1.85E2,7E0,1E1,9.7E1,5E0,1.3E1,6E0,6.1E1,1.6E1,1.83E2,2E0,1E0,6E0,2E0,8E0,5.6E1,4.1E1,2E0,3E0,1E1,3E0,4E0,2E0,5.3E1,8E0,5E0,1.1E1,1.41E2,4.2E1,4E0,2E0,6E0,2E0,5.1E1,5E0,3.2E1,9E0,1E0,1E0,1E0,9E0,2E0,1E0,2.1E1,3.2E1,5E0,3E0,5E0,6E0,1.36E2,5E0,1.2E1,3E1,2E0,2E0,4E0,2E0,1E0,1E0,4.9E1,2E0,1E0,4E0,5E0,2.7E1,7E0,2E0],"tree_param":{"num_deleted":"0","num_feature":"4","num_nodes":"75","size_leaf_vector":"1"}}]},"name":"gbtree"},"learner_model_param":{"base_score":"-3.08233E0","boost_from_average":"1","num_class":"0","num_feature":"4","num_target":"1"},"objective":{"name":"reg:squarederror","reg_loss_param":{"scale_pos_weight":"1"}}},"version":[2,1,4]}